
\data\
ngram 1=17

\1-grams:
-1.278754	</s>
-99	<s>
-1.04467	ba
-1.123852	bảy
-1.64673	bốn
-1.424882	chín
-1.082459	hai
-1.822822	lăm
-1.822822	lẻ
-0.7814289	mươi
-1.822822	mười
-1.822822	mốt
-1.278754	một
-1.521792	năm
-1.04467	sáu
-0.7621238	trăm
-1.169609	tám

\end\
